Language model created by QuickLM on Fri Feb 22 06:18:10 EST 2019
Copyright (c) 1996-2010 Carnegie Mellon University and Alexander I. Rudnicky

The model is in standard ARPA format, designed by Doug Paul while he was at MITRE.

The code that was used to produce this language model is available in Open Source.
Please visit http://www.speech.cs.cmu.edu/tools/ for more information

The (fixed) discount mass is 0.5. The backoffs are computed using the ratio method.
This model based on a corpus of 53 sentences and 55 words

\data\
ngram 1=55
ngram 2=106
ngram 3=53

\1-grams:
-0.7782 </s> -0.3010
-0.7782 <s> -0.2218
-2.5024 абай -0.2218
-2.5024 айналысамын -0.2218
-2.5024 анам -0.2218
-2.5024 атың -0.2218
-2.5024 ақкөңіл -0.2218
-2.5024 бол -0.2218
-2.5024 болады -0.2218
-2.5024 бос -0.2218
-2.5024 бұйра -0.2218
-2.5024 бөлменің -0.2218
-2.5024 денсаулық -0.2218
-2.5024 дәмін -0.2218
-2.5024 жаман -0.2218
-2.5024 жас -0.2218
-2.5024 жаңбыр -0.2218
-2.5024 жоқ -0.2218
-2.5024 жұмыс -0.2218
-2.5024 заңгер -0.2218
-2.5024 кім -0.2218
-2.5024 кішкентай -0.2218
-2.5024 күніңмен -0.2218
-2.5024 күніңізбен -0.2218
-2.5024 мекенжайы -0.2218
-2.5024 менің -0.2218
-2.5024 мұғалім -0.2218
-2.5024 нағашы -0.2218
-2.5024 ол -0.2218
-2.5024 оның -0.2218
-2.5024 орны -0.2218
-2.5024 ортасында -0.2218
-2.5024 отбасы -0.2218
-2.5024 оқасы -0.2218
-2.5024 палау -0.2218
-2.5024 сенбі -0.2218
-2.5024 спортпен -0.2218
-2.5024 сәлем -0.2218
-2.5024 татыңыз -0.2218
-2.5024 туған -0.2218
-2.5024 тілеймін -0.2218
-2.5024 тұр -0.2218
-2.5024 тұрады -0.2218
-2.5024 уақытың -0.2218
-2.5024 шашы -0.2218
-2.5024 қайда -0.2218
-2.5024 қаймақ -0.2218
-2.5024 қандай -0.2218
-2.5024 қашан -0.2218
-2.5024 қоңыр -0.2218
-2.5024 құттықтаймын -0.2218
-2.5024 үстелі -0.2218
-2.5024 ұшқыш -0.2218
-2.5024 әйелім -0.2218
-2.5024 әпкең -0.2218

\2-grams:
-2.0253 <s> абай 0.0000
-2.0253 <s> айналысамын 0.0000
-2.0253 <s> анам 0.0000
-2.0253 <s> атың 0.0000
-2.0253 <s> ақкөңіл 0.0000
-2.0253 <s> бол 0.0000
-2.0253 <s> болады 0.0000
-2.0253 <s> бос 0.0000
-2.0253 <s> бұйра 0.0000
-2.0253 <s> бөлменің 0.0000
-2.0253 <s> денсаулық 0.0000
-2.0253 <s> дәмін 0.0000
-2.0253 <s> жаман 0.0000
-2.0253 <s> жас 0.0000
-2.0253 <s> жаңбыр 0.0000
-2.0253 <s> жоқ 0.0000
-2.0253 <s> жұмыс 0.0000
-2.0253 <s> заңгер 0.0000
-2.0253 <s> кім 0.0000
-2.0253 <s> кішкентай 0.0000
-2.0253 <s> күніңмен 0.0000
-2.0253 <s> күніңізбен 0.0000
-2.0253 <s> мекенжайы 0.0000
-2.0253 <s> менің 0.0000
-2.0253 <s> мұғалім 0.0000
-2.0253 <s> нағашы 0.0000
-2.0253 <s> ол 0.0000
-2.0253 <s> оның 0.0000
-2.0253 <s> орны 0.0000
-2.0253 <s> ортасында 0.0000
-2.0253 <s> отбасы 0.0000
-2.0253 <s> оқасы 0.0000
-2.0253 <s> палау 0.0000
-2.0253 <s> сенбі 0.0000
-2.0253 <s> спортпен 0.0000
-2.0253 <s> сәлем 0.0000
-2.0253 <s> татыңыз 0.0000
-2.0253 <s> туған 0.0000
-2.0253 <s> тілеймін 0.0000
-2.0253 <s> тұр 0.0000
-2.0253 <s> тұрады 0.0000
-2.0253 <s> уақытың 0.0000
-2.0253 <s> шашы 0.0000
-2.0253 <s> қайда 0.0000
-2.0253 <s> қаймақ 0.0000
-2.0253 <s> қандай 0.0000
-2.0253 <s> қашан 0.0000
-2.0253 <s> қоңыр 0.0000
-2.0253 <s> құттықтаймын 0.0000
-2.0253 <s> үстелі 0.0000
-2.0253 <s> ұшқыш 0.0000
-2.0253 <s> әйелім 0.0000
-2.0253 <s> әпкең 0.0000
-0.3010 абай </s> -0.3010
-0.3010 айналысамын </s> -0.3010
-0.3010 анам </s> -0.3010
-0.3010 атың </s> -0.3010
-0.3010 ақкөңіл </s> -0.3010
-0.3010 бол </s> -0.3010
-0.3010 болады </s> -0.3010
-0.3010 бос </s> -0.3010
-0.3010 бұйра </s> -0.3010
-0.3010 бөлменің </s> -0.3010
-0.3010 денсаулық </s> -0.3010
-0.3010 дәмін </s> -0.3010
-0.3010 жаман </s> -0.3010
-0.3010 жас </s> -0.3010
-0.3010 жаңбыр </s> -0.3010
-0.3010 жоқ </s> -0.3010
-0.3010 жұмыс </s> -0.3010
-0.3010 заңгер </s> -0.3010
-0.3010 кім </s> -0.3010
-0.3010 кішкентай </s> -0.3010
-0.3010 күніңмен </s> -0.3010
-0.3010 күніңізбен </s> -0.3010
-0.3010 мекенжайы </s> -0.3010
-0.3010 менің </s> -0.3010
-0.3010 мұғалім </s> -0.3010
-0.3010 нағашы </s> -0.3010
-0.3010 ол </s> -0.3010
-0.3010 оның </s> -0.3010
-0.3010 орны </s> -0.3010
-0.3010 ортасында </s> -0.3010
-0.3010 отбасы </s> -0.3010
-0.3010 оқасы </s> -0.3010
-0.3010 палау </s> -0.3010
-0.3010 сенбі </s> -0.3010
-0.3010 спортпен </s> -0.3010
-0.3010 сәлем </s> -0.3010
-0.3010 татыңыз </s> -0.3010
-0.3010 туған </s> -0.3010
-0.3010 тілеймін </s> -0.3010
-0.3010 тұр </s> -0.3010
-0.3010 тұрады </s> -0.3010
-0.3010 уақытың </s> -0.3010
-0.3010 шашы </s> -0.3010
-0.3010 қайда </s> -0.3010
-0.3010 қаймақ </s> -0.3010
-0.3010 қандай </s> -0.3010
-0.3010 қашан </s> -0.3010
-0.3010 қоңыр </s> -0.3010
-0.3010 құттықтаймын </s> -0.3010
-0.3010 үстелі </s> -0.3010
-0.3010 ұшқыш </s> -0.3010
-0.3010 әйелім </s> -0.3010
-0.3010 әпкең </s> -0.3010

\3-grams:
-0.3010 <s> абай </s>
-0.3010 <s> айналысамын </s>
-0.3010 <s> анам </s>
-0.3010 <s> атың </s>
-0.3010 <s> ақкөңіл </s>
-0.3010 <s> бол </s>
-0.3010 <s> болады </s>
-0.3010 <s> бос </s>
-0.3010 <s> бұйра </s>
-0.3010 <s> бөлменің </s>
-0.3010 <s> денсаулық </s>
-0.3010 <s> дәмін </s>
-0.3010 <s> жаман </s>
-0.3010 <s> жас </s>
-0.3010 <s> жаңбыр </s>
-0.3010 <s> жоқ </s>
-0.3010 <s> жұмыс </s>
-0.3010 <s> заңгер </s>
-0.3010 <s> кім </s>
-0.3010 <s> кішкентай </s>
-0.3010 <s> күніңмен </s>
-0.3010 <s> күніңізбен </s>
-0.3010 <s> мекенжайы </s>
-0.3010 <s> менің </s>
-0.3010 <s> мұғалім </s>
-0.3010 <s> нағашы </s>
-0.3010 <s> ол </s>
-0.3010 <s> оның </s>
-0.3010 <s> орны </s>
-0.3010 <s> ортасында </s>
-0.3010 <s> отбасы </s>
-0.3010 <s> оқасы </s>
-0.3010 <s> палау </s>
-0.3010 <s> сенбі </s>
-0.3010 <s> спортпен </s>
-0.3010 <s> сәлем </s>
-0.3010 <s> татыңыз </s>
-0.3010 <s> туған </s>
-0.3010 <s> тілеймін </s>
-0.3010 <s> тұр </s>
-0.3010 <s> тұрады </s>
-0.3010 <s> уақытың </s>
-0.3010 <s> шашы </s>
-0.3010 <s> қайда </s>
-0.3010 <s> қаймақ </s>
-0.3010 <s> қандай </s>
-0.3010 <s> қашан </s>
-0.3010 <s> қоңыр </s>
-0.3010 <s> құттықтаймын </s>
-0.3010 <s> үстелі </s>
-0.3010 <s> ұшқыш </s>
-0.3010 <s> әйелім </s>
-0.3010 <s> әпкең </s>

\end\
